digraph Tree {
node [shape=box, style="filled", color="black"] ;
0 [label="ap_hi_2 <= 0.5\ngini = 0.5\nsamples = 49000\nvalue = [24531, 24469]", fillcolor="#e5813901"] ;
1 [label="ap_hi_3 <= 0.5\ngini = 0.485\nsamples = 38935\nvalue = [22795, 16140]", fillcolor="#e581394a"] ;
0 -> 1 [labeldistance=2.5, labelangle=45, headlabel="True"] ;
2 [label="chol_3 <= 0.5\ngini = 0.471\nsamples = 36205\nvalue = [22437, 13768]", fillcolor="#e5813963"] ;
1 -> 2 ;
3 [label="age_4 <= 0.5\ngini = 0.453\nsamples = 32880\nvalue = [21502, 11378]", fillcolor="#e5813978"] ;
2 -> 3 ;
4 [label="age_3 <= 0.5\ngini = 0.43\nsamples = 27936\nvalue = [19188, 8748]", fillcolor="#e581398b"] ;
3 -> 4 ;
5 [label="ap_hi_1 <= 0.5\ngini = 0.394\nsamples = 19980\nvalue = [14599, 5381]", fillcolor="#e58139a1"] ;
4 -> 5 ;
6 [label="age_2 <= 0.5\ngini = 0.313\nsamples = 6464\nvalue = [5209, 1255]", fillcolor="#e58139c2"] ;
5 -> 6 ;
7 [label="chol_2 <= 0.5\ngini = 0.267\nsamples = 4275\nvalue = [3596, 679]", fillcolor="#e58139cf"] ;
6 -> 7 ;
8 [label="age_1 <= 0.5\ngini = 0.243\nsamples = 3731\nvalue = [3204, 527]", fillcolor="#e58139d5"] ;
7 -> 8 ;
9 [label="male <= 0.5\ngini = 0.183\nsamples = 2076\nvalue = [1865, 211]", fillcolor="#e58139e2"] ;
8 -> 9 ;
10 [label="smoke <= 0.5\ngini = 0.168\nsamples = 1519\nvalue = [1378, 141]", fillcolor="#e58139e5"] ;
9 -> 10 ;
11 [label="gini = 0.168\nsamples = 1487\nvalue = [1349, 138]", fillcolor="#e58139e5"] ;
10 -> 11 ;
12 [label="gini = 0.17\nsamples = 32\nvalue = [29, 3]", fillcolor="#e58139e5"] ;
10 -> 12 ;
13 [label="smoke <= 0.5\ngini = 0.22\nsamples = 557\nvalue = [487, 70]", fillcolor="#e58139da"] ;
9 -> 13 ;
14 [label="gini = 0.235\nsamples = 426\nvalue = [368, 58]", fillcolor="#e58139d7"] ;
13 -> 14 ;
15 [label="gini = 0.166\nsamples = 131\nvalue = [119, 12]", fillcolor="#e58139e5"] ;
13 -> 15 ;
16 [label="male <= 0.5\ngini = 0.309\nsamples = 1655\nvalue = [1339, 316]", fillcolor="#e58139c3"] ;
8 -> 16 ;
17 [label="smoke <= 0.5\ngini = 0.28\nsamples = 1189\nvalue = [989, 200]", fillcolor="#e58139cb"] ;
16 -> 17 ;
18 [label="gini = 0.282\nsamples = 1167\nvalue = [969, 198]", fillcolor="#e58139cb"] ;
17 -> 18 ;
19 [label="gini = 0.165\nsamples = 22\nvalue = [20, 2]", fillcolor="#e58139e6"] ;
17 -> 19 ;
20 [label="smoke <= 0.5\ngini = 0.374\nsamples = 466\nvalue = [350, 116]", fillcolor="#e58139aa"] ;
16 -> 20 ;
21 [label="gini = 0.387\nsamples = 328\nvalue = [242, 86]", fillcolor="#e58139a4"] ;
20 -> 21 ;
22 [label="gini = 0.34\nsamples = 138\nvalue = [108, 30]", fillcolor="#e58139b8"] ;
20 -> 22 ;
23 [label="male <= 0.5\ngini = 0.403\nsamples = 544\nvalue = [392, 152]", fillcolor="#e581399c"] ;
7 -> 23 ;
24 [label="age_1 <= 0.5\ngini = 0.379\nsamples = 417\nvalue = [311, 106]", fillcolor="#e58139a8"] ;
23 -> 24 ;
25 [label="smoke <= 0.5\ngini = 0.372\nsamples = 194\nvalue = [146, 48]", fillcolor="#e58139ab"] ;
24 -> 25 ;
26 [label="gini = 0.375\nsamples = 188\nvalue = [141, 47]", fillcolor="#e58139aa"] ;
25 -> 26 ;
27 [label="gini = 0.278\nsamples = 6\nvalue = [5, 1]", fillcolor="#e58139cc"] ;
25 -> 27 ;
28 [label="smoke <= 0.5\ngini = 0.385\nsamples = 223\nvalue = [165, 58]", fillcolor="#e58139a5"] ;
24 -> 28 ;
29 [label="gini = 0.384\nsamples = 216\nvalue = [160, 56]", fillcolor="#e58139a6"] ;
28 -> 29 ;
30 [label="gini = 0.408\nsamples = 7\nvalue = [5, 2]", fillcolor="#e5813999"] ;
28 -> 30 ;
31 [label="age_1 <= 0.5\ngini = 0.462\nsamples = 127\nvalue = [81, 46]", fillcolor="#e581396e"] ;
23 -> 31 ;
32 [label="smoke <= 0.5\ngini = 0.416\nsamples = 61\nvalue = [43, 18]", fillcolor="#e5813994"] ;
31 -> 32 ;
33 [label="gini = 0.426\nsamples = 39\nvalue = [27, 12]", fillcolor="#e581398e"] ;
32 -> 33 ;
34 [label="gini = 0.397\nsamples = 22\nvalue = [16, 6]", fillcolor="#e581399f"] ;
32 -> 34 ;
35 [label="smoke <= 0.5\ngini = 0.489\nsamples = 66\nvalue = [38, 28]", fillcolor="#e5813943"] ;
31 -> 35 ;
36 [label="gini = 0.496\nsamples = 44\nvalue = [24, 20]", fillcolor="#e581392a"] ;
35 -> 36 ;
37 [label="gini = 0.463\nsamples = 22\nvalue = [14, 8]", fillcolor="#e581396d"] ;
35 -> 37 ;
38 [label="chol_1 <= 0.5\ngini = 0.388\nsamples = 2189\nvalue = [1613, 576]", fillcolor="#e58139a4"] ;
6 -> 38 ;
39 [label="male <= 0.5\ngini = 0.457\nsamples = 377\nvalue = [244, 133]", fillcolor="#e5813974"] ;
38 -> 39 ;
40 [label="smoke <= 0.5\ngini = 0.445\nsamples = 302\nvalue = [201, 101]", fillcolor="#e581397f"] ;
39 -> 40 ;
41 [label="gini = 0.438\nsamples = 293\nvalue = [198, 95]", fillcolor="#e5813985"] ;
40 -> 41 ;
42 [label="gini = 0.444\nsamples = 9\nvalue = [3, 6]", fillcolor="#399de57f"] ;
40 -> 42 ;
43 [label="smoke <= 0.5\ngini = 0.489\nsamples = 75\nvalue = [43, 32]", fillcolor="#e5813941"] ;
39 -> 43 ;
44 [label="gini = 0.497\nsamples = 54\nvalue = [29, 25]", fillcolor="#e5813923"] ;
43 -> 44 ;
45 [label="gini = 0.444\nsamples = 21\nvalue = [14, 7]", fillcolor="#e581397f"] ;
43 -> 45 ;
46 [label="male <= 0.5\ngini = 0.369\nsamples = 1812\nvalue = [1369, 443]", fillcolor="#e58139ac"] ;
38 -> 46 ;
47 [label="smoke <= 0.5\ngini = 0.347\nsamples = 1328\nvalue = [1031, 297]", fillcolor="#e58139b6"] ;
46 -> 47 ;
48 [label="gini = 0.348\nsamples = 1300\nvalue = [1008, 292]", fillcolor="#e58139b5"] ;
47 -> 48 ;
49 [label="gini = 0.293\nsamples = 28\nvalue = [23, 5]", fillcolor="#e58139c8"] ;
47 -> 49 ;
50 [label="smoke <= 0.5\ngini = 0.421\nsamples = 484\nvalue = [338, 146]", fillcolor="#e5813991"] ;
46 -> 50 ;
51 [label="gini = 0.433\nsamples = 378\nvalue = [258, 120]", fillcolor="#e5813988"] ;
50 -> 51 ;
52 [label="gini = 0.37\nsamples = 106\nvalue = [80, 26]", fillcolor="#e58139ac"] ;
50 -> 52 ;
53 [label="chol_2 <= 0.5\ngini = 0.424\nsamples = 13516\nvalue = [9390, 4126]", fillcolor="#e581398f"] ;
5 -> 53 ;
54 [label="age_2 <= 0.5\ngini = 0.412\nsamples = 12062\nvalue = [8557, 3505]", fillcolor="#e5813997"] ;
53 -> 54 ;
55 [label="age_1 <= 0.5\ngini = 0.386\nsamples = 6650\nvalue = [4912, 1738]", fillcolor="#e58139a5"] ;
54 -> 55 ;
56 [label="smoke <= 0.5\ngini = 0.329\nsamples = 3185\nvalue = [2525, 660]", fillcolor="#e58139bc"] ;
55 -> 56 ;
57 [label="male <= 0.5\ngini = 0.337\nsamples = 2810\nvalue = [2207, 603]", fillcolor="#e58139b9"] ;
56 -> 57 ;
58 [label="gini = 0.333\nsamples = 1717\nvalue = [1355, 362]", fillcolor="#e58139bb"] ;
57 -> 58 ;
59 [label="gini = 0.344\nsamples = 1093\nvalue = [852, 241]", fillcolor="#e58139b7"] ;
57 -> 59 ;
60 [label="male <= 0.5\ngini = 0.258\nsamples = 375\nvalue = [318, 57]", fillcolor="#e58139d1"] ;
56 -> 60 ;
61 [label="gini = 0.295\nsamples = 50\nvalue = [41, 9]", fillcolor="#e58139c7"] ;
60 -> 61 ;
62 [label="gini = 0.252\nsamples = 325\nvalue = [277, 48]", fillcolor="#e58139d3"] ;
60 -> 62 ;
63 [label="smoke <= 0.5\ngini = 0.429\nsamples = 3465\nvalue = [2387, 1078]", fillcolor="#e581398c"] ;
55 -> 63 ;
64 [label="male <= 0.5\ngini = 0.434\nsamples = 3121\nvalue = [2129, 992]", fillcolor="#e5813988"] ;
63 -> 64 ;
65 [label="gini = 0.43\nsamples = 1982\nvalue = [1363, 619]", fillcolor="#e581398b"] ;
64 -> 65 ;
66 [label="gini = 0.44\nsamples = 1139\nvalue = [766, 373]", fillcolor="#e5813983"] ;
64 -> 66 ;
67 [label="male <= 0.5\ngini = 0.375\nsamples = 344\nvalue = [258, 86]", fillcolor="#e58139aa"] ;
63 -> 67 ;
68 [label="gini = 0.397\nsamples = 33\nvalue = [24, 9]", fillcolor="#e581399f"] ;
67 -> 68 ;
69 [label="gini = 0.373\nsamples = 311\nvalue = [234, 77]", fillcolor="#e58139ab"] ;
67 -> 69 ;
70 [label="smoke <= 0.5\ngini = 0.44\nsamples = 5412\nvalue = [3645, 1767]", fillcolor="#e5813983"] ;
54 -> 70 ;
71 [label="male <= 0.5\ngini = 0.443\nsamples = 4990\nvalue = [3340, 1650]", fillcolor="#e5813981"] ;
70 -> 71 ;
72 [label="gini = 0.44\nsamples = 3495\nvalue = [2353, 1142]", fillcolor="#e5813983"] ;
71 -> 72 ;
73 [label="gini = 0.449\nsamples = 1495\nvalue = [987, 508]", fillcolor="#e581397c"] ;
71 -> 73 ;
74 [label="male <= 0.5\ngini = 0.401\nsamples = 422\nvalue = [305, 117]", fillcolor="#e581399d"] ;
70 -> 74 ;
75 [label="gini = 0.423\nsamples = 46\nvalue = [32, 14]", fillcolor="#e581398f"] ;
74 -> 75 ;
76 [label="gini = 0.398\nsamples = 376\nvalue = [273, 103]", fillcolor="#e581399f"] ;
74 -> 76 ;
77 [label="age_1 <= 0.5\ngini = 0.489\nsamples = 1454\nvalue = [833, 621]", fillcolor="#e5813941"] ;
53 -> 77 ;
78 [label="age_2 <= 0.5\ngini = 0.487\nsamples = 1027\nvalue = [597, 430]", fillcolor="#e5813947"] ;
77 -> 78 ;
79 [label="smoke <= 0.5\ngini = 0.473\nsamples = 344\nvalue = [212, 132]", fillcolor="#e5813960"] ;
78 -> 79 ;
80 [label="male <= 0.5\ngini = 0.47\nsamples = 296\nvalue = [184, 112]", fillcolor="#e5813964"] ;
79 -> 80 ;
81 [label="gini = 0.474\nsamples = 192\nvalue = [118, 74]", fillcolor="#e581395f"] ;
80 -> 81 ;
82 [label="gini = 0.464\nsamples = 104\nvalue = [66, 38]", fillcolor="#e581396c"] ;
80 -> 82 ;
83 [label="male <= 0.5\ngini = 0.486\nsamples = 48\nvalue = [28, 20]", fillcolor="#e5813949"] ;
79 -> 83 ;
84 [label="gini = 0.408\nsamples = 7\nvalue = [5, 2]", fillcolor="#e5813999"] ;
83 -> 84 ;
85 [label="gini = 0.493\nsamples = 41\nvalue = [23, 18]", fillcolor="#e5813937"] ;
83 -> 85 ;
86 [label="male <= 0.5\ngini = 0.492\nsamples = 683\nvalue = [385, 298]", fillcolor="#e581393a"] ;
78 -> 86 ;
87 [label="smoke <= 0.5\ngini = 0.494\nsamples = 470\nvalue = [261, 209]", fillcolor="#e5813933"] ;
86 -> 87 ;
88 [label="gini = 0.493\nsamples = 460\nvalue = [258, 202]", fillcolor="#e5813937"] ;
87 -> 88 ;
89 [label="gini = 0.42\nsamples = 10\nvalue = [3, 7]", fillcolor="#399de592"] ;
87 -> 89 ;
90 [label="smoke <= 0.5\ngini = 0.486\nsamples = 213\nvalue = [124, 89]", fillcolor="#e5813948"] ;
86 -> 90 ;
91 [label="gini = 0.491\nsamples = 153\nvalue = [87, 66]", fillcolor="#e581393e"] ;
90 -> 91 ;
92 [label="gini = 0.473\nsamples = 60\nvalue = [37, 23]", fillcolor="#e5813960"] ;
90 -> 92 ;
93 [label="male <= 0.5\ngini = 0.494\nsamples = 427\nvalue = [236, 191]", fillcolor="#e5813931"] ;
77 -> 93 ;
94 [label="smoke <= 0.5\ngini = 0.487\nsamples = 270\nvalue = [157, 113]", fillcolor="#e5813947"] ;
93 -> 94 ;
95 [label="gini = 0.489\nsamples = 266\nvalue = [153, 113]", fillcolor="#e5813943"] ;
94 -> 95 ;
96 [label="gini = 0.0\nsamples = 4\nvalue = [4, 0]", fillcolor="#e58139ff"] ;
94 -> 96 ;
97 [label="smoke <= 0.5\ngini = 0.5\nsamples = 157\nvalue = [79, 78]", fillcolor="#e5813903"] ;
93 -> 97 ;
98 [label="gini = 0.499\nsamples = 107\nvalue = [51, 56]", fillcolor="#399de517"] ;
97 -> 98 ;
99 [label="gini = 0.493\nsamples = 50\nvalue = [28, 22]", fillcolor="#e5813937"] ;
97 -> 99 ;
100 [label="ap_hi_1 <= 0.5\ngini = 0.488\nsamples = 7956\nvalue = [4589, 3367]", fillcolor="#e5813944"] ;
4 -> 100 ;
101 [label="chol_2 <= 0.5\ngini = 0.454\nsamples = 1771\nvalue = [1154, 617]", fillcolor="#e5813977"] ;
100 -> 101 ;
102 [label="smoke <= 0.5\ngini = 0.445\nsamples = 1454\nvalue = [968, 486]", fillcolor="#e581397f"] ;
101 -> 102 ;
103 [label="male <= 0.5\ngini = 0.451\nsamples = 1322\nvalue = [867, 455]", fillcolor="#e5813979"] ;
102 -> 103 ;
104 [label="gini = 0.442\nsamples = 1008\nvalue = [675, 333]", fillcolor="#e5813981"] ;
103 -> 104 ;
105 [label="gini = 0.475\nsamples = 314\nvalue = [192, 122]", fillcolor="#e581395d"] ;
103 -> 105 ;
106 [label="male <= 0.5\ngini = 0.359\nsamples = 132\nvalue = [101, 31]", fillcolor="#e58139b1"] ;
102 -> 106 ;
107 [label="gini = 0.469\nsamples = 16\nvalue = [10, 6]", fillcolor="#e5813966"] ;
106 -> 107 ;
108 [label="gini = 0.338\nsamples = 116\nvalue = [91, 25]", fillcolor="#e58139b9"] ;
106 -> 108 ;
109 [label="male <= 0.5\ngini = 0.485\nsamples = 317\nvalue = [186, 131]", fillcolor="#e581394b"] ;
101 -> 109 ;
110 [label="smoke <= 0.5\ngini = 0.468\nsamples = 241\nvalue = [151, 90]", fillcolor="#e5813967"] ;
109 -> 110 ;
111 [label="gini = 0.469\nsamples = 237\nvalue = [148, 89]", fillcolor="#e5813966"] ;
110 -> 111 ;
112 [label="gini = 0.375\nsamples = 4\nvalue = [3, 1]", fillcolor="#e58139aa"] ;
110 -> 112 ;
113 [label="smoke <= 0.5\ngini = 0.497\nsamples = 76\nvalue = [35, 41]", fillcolor="#399de525"] ;
109 -> 113 ;
114 [label="gini = 0.499\nsamples = 56\nvalue = [27, 29]", fillcolor="#399de512"] ;
113 -> 114 ;
115 [label="gini = 0.48\nsamples = 20\nvalue = [8, 12]", fillcolor="#399de555"] ;
113 -> 115 ;
116 [label="chol_2 <= 0.5\ngini = 0.494\nsamples = 6185\nvalue = [3435, 2750]", fillcolor="#e5813933"] ;
100 -> 116 ;
117 [label="male <= 0.5\ngini = 0.492\nsamples = 5404\nvalue = [3053, 2351]", fillcolor="#e581393b"] ;
116 -> 117 ;
118 [label="smoke <= 0.5\ngini = 0.495\nsamples = 3550\nvalue = [1944, 1606]", fillcolor="#e581392c"] ;
117 -> 118 ;
119 [label="gini = 0.496\nsamples = 3497\nvalue = [1912, 1585]", fillcolor="#e581392c"] ;
118 -> 119 ;
120 [label="gini = 0.478\nsamples = 53\nvalue = [32, 21]", fillcolor="#e5813958"] ;
118 -> 120 ;
121 [label="smoke <= 0.5\ngini = 0.481\nsamples = 1854\nvalue = [1109, 745]", fillcolor="#e5813954"] ;
117 -> 121 ;
122 [label="gini = 0.485\nsamples = 1517\nvalue = [891, 626]", fillcolor="#e581394c"] ;
121 -> 122 ;
123 [label="gini = 0.457\nsamples = 337\nvalue = [218, 119]", fillcolor="#e5813974"] ;
121 -> 123 ;
124 [label="smoke <= 0.5\ngini = 0.5\nsamples = 781\nvalue = [382, 399]", fillcolor="#399de50b"] ;
116 -> 124 ;
125 [label="male <= 0.5\ngini = 0.499\nsamples = 704\nvalue = [336, 368]", fillcolor="#399de516"] ;
124 -> 125 ;
126 [label="gini = 0.499\nsamples = 536\nvalue = [259, 277]", fillcolor="#399de511"] ;
125 -> 126 ;
127 [label="gini = 0.497\nsamples = 168\nvalue = [77, 91]", fillcolor="#399de527"] ;
125 -> 127 ;
128 [label="male <= 0.5\ngini = 0.481\nsamples = 77\nvalue = [46, 31]", fillcolor="#e5813953"] ;
124 -> 128 ;
129 [label="gini = 0.497\nsamples = 13\nvalue = [7, 6]", fillcolor="#e5813924"] ;
128 -> 129 ;
130 [label="gini = 0.476\nsamples = 64\nvalue = [39, 25]", fillcolor="#e581395c"] ;
128 -> 130 ;
131 [label="chol_2 <= 0.5\ngini = 0.498\nsamples = 4944\nvalue = [2314, 2630]", fillcolor="#399de51f"] ;
3 -> 131 ;
132 [label="ap_hi_1 <= 0.5\ngini = 0.499\nsamples = 4264\nvalue = [2042, 2222]", fillcolor="#399de515"] ;
131 -> 132 ;
133 [label="male <= 0.5\ngini = 0.496\nsamples = 811\nvalue = [441, 370]", fillcolor="#e5813929"] ;
132 -> 133 ;
134 [label="smoke <= 0.5\ngini = 0.494\nsamples = 530\nvalue = [293, 237]", fillcolor="#e5813931"] ;
133 -> 134 ;
135 [label="gini = 0.494\nsamples = 526\nvalue = [291, 235]", fillcolor="#e5813931"] ;
134 -> 135 ;
136 [label="gini = 0.5\nsamples = 4\nvalue = [2, 2]", fillcolor="#e5813900"] ;
134 -> 136 ;
137 [label="smoke <= 0.5\ngini = 0.499\nsamples = 281\nvalue = [148, 133]", fillcolor="#e581391a"] ;
133 -> 137 ;
138 [label="gini = 0.499\nsamples = 229\nvalue = [120, 109]", fillcolor="#e5813917"] ;
137 -> 138 ;
139 [label="gini = 0.497\nsamples = 52\nvalue = [28, 24]", fillcolor="#e5813924"] ;
137 -> 139 ;
140 [label="smoke <= 0.5\ngini = 0.497\nsamples = 3453\nvalue = [1601, 1852]", fillcolor="#399de523"] ;
132 -> 140 ;
141 [label="male <= 0.5\ngini = 0.496\nsamples = 3230\nvalue = [1475, 1755]", fillcolor="#399de529"] ;
140 -> 141 ;
142 [label="gini = 0.496\nsamples = 2135\nvalue = [978, 1157]", fillcolor="#399de527"] ;
141 -> 142 ;
143 [label="gini = 0.496\nsamples = 1095\nvalue = [497, 598]", fillcolor="#399de52b"] ;
141 -> 143 ;
144 [label="male <= 0.5\ngini = 0.492\nsamples = 223\nvalue = [126, 97]", fillcolor="#e581393b"] ;
140 -> 144 ;
145 [label="gini = 0.491\nsamples = 23\nvalue = [13, 10]", fillcolor="#e581393b"] ;
144 -> 145 ;
146 [label="gini = 0.492\nsamples = 200\nvalue = [113, 87]", fillcolor="#e581393b"] ;
144 -> 146 ;
147 [label="male <= 0.5\ngini = 0.48\nsamples = 680\nvalue = [272, 408]", fillcolor="#399de555"] ;
131 -> 147 ;
148 [label="ap_hi_1 <= 0.5\ngini = 0.474\nsamples = 463\nvalue = [179, 284]", fillcolor="#399de55e"] ;
147 -> 148 ;
149 [label="smoke <= 0.5\ngini = 0.488\nsamples = 128\nvalue = [54, 74]", fillcolor="#399de545"] ;
148 -> 149 ;
150 [label="gini = 0.485\nsamples = 126\nvalue = [52, 74]", fillcolor="#399de54c"] ;
149 -> 150 ;
151 [label="gini = 0.0\nsamples = 2\nvalue = [2, 0]", fillcolor="#e58139ff"] ;
149 -> 151 ;
152 [label="smoke <= 0.5\ngini = 0.468\nsamples = 335\nvalue = [125, 210]", fillcolor="#399de567"] ;
148 -> 152 ;
153 [label="gini = 0.469\nsamples = 332\nvalue = [125, 207]", fillcolor="#399de565"] ;
152 -> 153 ;
154 [label="gini = 0.0\nsamples = 3\nvalue = [0, 3]", fillcolor="#399de5ff"] ;
152 -> 154 ;
155 [label="smoke <= 0.5\ngini = 0.49\nsamples = 217\nvalue = [93, 124]", fillcolor="#399de540"] ;
147 -> 155 ;
156 [label="ap_hi_1 <= 0.5\ngini = 0.495\nsamples = 169\nvalue = [76, 93]", fillcolor="#399de52f"] ;
155 -> 156 ;
157 [label="gini = 0.484\nsamples = 56\nvalue = [23, 33]", fillcolor="#399de54d"] ;
156 -> 157 ;
158 [label="gini = 0.498\nsamples = 113\nvalue = [53, 60]", fillcolor="#399de51e"] ;
156 -> 158 ;
159 [label="ap_hi_1 <= 0.5\ngini = 0.457\nsamples = 48\nvalue = [17, 31]", fillcolor="#399de573"] ;
155 -> 159 ;
160 [label="gini = 0.337\nsamples = 14\nvalue = [3, 11]", fillcolor="#399de5b9"] ;
159 -> 160 ;
161 [label="gini = 0.484\nsamples = 34\nvalue = [14, 20]", fillcolor="#399de54d"] ;
159 -> 161 ;
162 [label="age_4 <= 0.5\ngini = 0.404\nsamples = 3325\nvalue = [935, 2390]", fillcolor="#399de59b"] ;
2 -> 162 ;
163 [label="ap_hi_1 <= 0.5\ngini = 0.43\nsamples = 2376\nvalue = [742, 1634]", fillcolor="#399de58b"] ;
162 -> 163 ;
164 [label="age_3 <= 0.5\ngini = 0.473\nsamples = 444\nvalue = [170, 274]", fillcolor="#399de561"] ;
163 -> 164 ;
165 [label="smoke <= 0.5\ngini = 0.492\nsamples = 229\nvalue = [100, 129]", fillcolor="#399de539"] ;
164 -> 165 ;
166 [label="age_1 <= 0.5\ngini = 0.496\nsamples = 204\nvalue = [93, 111]", fillcolor="#399de529"] ;
165 -> 166 ;
167 [label="age_2 <= 0.5\ngini = 0.499\nsamples = 147\nvalue = [71, 76]", fillcolor="#399de511"] ;
166 -> 167 ;
168 [label="male <= 0.5\ngini = 0.459\nsamples = 42\nvalue = [27, 15]", fillcolor="#e5813971"] ;
167 -> 168 ;
169 [label="gini = 0.485\nsamples = 29\nvalue = [17, 12]", fillcolor="#e581394b"] ;
168 -> 169 ;
170 [label="gini = 0.355\nsamples = 13\nvalue = [10, 3]", fillcolor="#e58139b3"] ;
168 -> 170 ;
171 [label="male <= 0.5\ngini = 0.487\nsamples = 105\nvalue = [44, 61]", fillcolor="#399de547"] ;
167 -> 171 ;
172 [label="gini = 0.499\nsamples = 74\nvalue = [35, 39]", fillcolor="#399de51a"] ;
171 -> 172 ;
173 [label="gini = 0.412\nsamples = 31\nvalue = [9, 22]", fillcolor="#399de597"] ;
171 -> 173 ;
174 [label="male <= 0.5\ngini = 0.474\nsamples = 57\nvalue = [22, 35]", fillcolor="#399de55f"] ;
166 -> 174 ;
175 [label="gini = 0.472\nsamples = 34\nvalue = [13, 21]", fillcolor="#399de561"] ;
174 -> 175 ;
176 [label="gini = 0.476\nsamples = 23\nvalue = [9, 14]", fillcolor="#399de55b"] ;
174 -> 176 ;
177 [label="male <= 0.5\ngini = 0.403\nsamples = 25\nvalue = [7, 18]", fillcolor="#399de59c"] ;
165 -> 177 ;
178 [label="age_2 <= 0.5\ngini = 0.375\nsamples = 4\nvalue = [1, 3]", fillcolor="#399de5aa"] ;
177 -> 178 ;
179 [label="gini = 0.0\nsamples = 2\nvalue = [0, 2]", fillcolor="#399de5ff"] ;
178 -> 179 ;
180 [label="gini = 0.5\nsamples = 2\nvalue = [1, 1]", fillcolor="#e5813900"] ;
178 -> 180 ;
181 [label="age_2 <= 0.5\ngini = 0.408\nsamples = 21\nvalue = [6, 15]", fillcolor="#399de599"] ;
177 -> 181 ;
182 [label="age_1 <= 0.5\ngini = 0.444\nsamples = 9\nvalue = [3, 6]", fillcolor="#399de57f"] ;
181 -> 182 ;
183 [label="gini = 0.444\nsamples = 3\nvalue = [1, 2]", fillcolor="#399de57f"] ;
182 -> 183 ;
184 [label="gini = 0.444\nsamples = 6\nvalue = [2, 4]", fillcolor="#399de57f"] ;
182 -> 184 ;
185 [label="gini = 0.375\nsamples = 12\nvalue = [3, 9]", fillcolor="#399de5aa"] ;
181 -> 185 ;
186 [label="male <= 0.5\ngini = 0.439\nsamples = 215\nvalue = [70, 145]", fillcolor="#399de584"] ;
164 -> 186 ;
187 [label="smoke <= 0.5\ngini = 0.457\nsamples = 161\nvalue = [57, 104]", fillcolor="#399de573"] ;
186 -> 187 ;
188 [label="gini = 0.455\nsamples = 154\nvalue = [54, 100]", fillcolor="#399de575"] ;
187 -> 188 ;
189 [label="gini = 0.49\nsamples = 7\nvalue = [3, 4]", fillcolor="#399de540"] ;
187 -> 189 ;
190 [label="smoke <= 0.5\ngini = 0.366\nsamples = 54\nvalue = [13, 41]", fillcolor="#399de5ae"] ;
186 -> 190 ;
191 [label="gini = 0.391\nsamples = 45\nvalue = [12, 33]", fillcolor="#399de5a2"] ;
190 -> 191 ;
192 [label="gini = 0.198\nsamples = 9\nvalue = [1, 8]", fillcolor="#399de5df"] ;
190 -> 192 ;
193 [label="male <= 0.5\ngini = 0.417\nsamples = 1932\nvalue = [572, 1360]", fillcolor="#399de594"] ;
163 -> 193 ;
194 [label="age_3 <= 0.5\ngini = 0.405\nsamples = 1349\nvalue = [380, 969]", fillcolor="#399de59b"] ;
193 -> 194 ;
195 [label="smoke <= 0.5\ngini = 0.418\nsamples = 698\nvalue = [208, 490]", fillcolor="#399de593"] ;
194 -> 195 ;
196 [label="age_1 <= 0.5\ngini = 0.422\nsamples = 680\nvalue = [206, 474]", fillcolor="#399de590"] ;
195 -> 196 ;
197 [label="age_2 <= 0.5\ngini = 0.427\nsamples = 506\nvalue = [156, 350]", fillcolor="#399de58d"] ;
196 -> 197 ;
198 [label="gini = 0.433\nsamples = 104\nvalue = [33, 71]", fillcolor="#399de588"] ;
197 -> 198 ;
199 [label="gini = 0.425\nsamples = 402\nvalue = [123, 279]", fillcolor="#399de58f"] ;
197 -> 199 ;
200 [label="gini = 0.41\nsamples = 174\nvalue = [50, 124]", fillcolor="#399de598"] ;
196 -> 200 ;
201 [label="age_1 <= 0.5\ngini = 0.198\nsamples = 18\nvalue = [2, 16]", fillcolor="#399de5df"] ;
195 -> 201 ;
202 [label="age_2 <= 0.5\ngini = 0.278\nsamples = 12\nvalue = [2, 10]", fillcolor="#399de5cc"] ;
201 -> 202 ;
203 [label="gini = 0.32\nsamples = 5\nvalue = [1, 4]", fillcolor="#399de5bf"] ;
202 -> 203 ;
204 [label="gini = 0.245\nsamples = 7\nvalue = [1, 6]", fillcolor="#399de5d4"] ;
202 -> 204 ;
205 [label="gini = 0.0\nsamples = 6\nvalue = [0, 6]", fillcolor="#399de5ff"] ;
201 -> 205 ;
206 [label="smoke <= 0.5\ngini = 0.389\nsamples = 651\nvalue = [172, 479]", fillcolor="#399de5a3"] ;
194 -> 206 ;
207 [label="gini = 0.389\nsamples = 636\nvalue = [168, 468]", fillcolor="#399de5a3"] ;
206 -> 207 ;
208 [label="gini = 0.391\nsamples = 15\nvalue = [4, 11]", fillcolor="#399de5a2"] ;
206 -> 208 ;
209 [label="age_1 <= 0.5\ngini = 0.442\nsamples = 583\nvalue = [192, 391]", fillcolor="#399de582"] ;
193 -> 209 ;
210 [label="age_3 <= 0.5\ngini = 0.448\nsamples = 479\nvalue = [162, 317]", fillcolor="#399de57d"] ;
209 -> 210 ;
211 [label="age_2 <= 0.5\ngini = 0.468\nsamples = 209\nvalue = [78, 131]", fillcolor="#399de567"] ;
210 -> 211 ;
212 [label="smoke <= 0.5\ngini = 0.491\nsamples = 46\nvalue = [20, 26]", fillcolor="#399de53b"] ;
211 -> 212 ;
213 [label="gini = 0.495\nsamples = 40\nvalue = [18, 22]", fillcolor="#399de52e"] ;
212 -> 213 ;
214 [label="gini = 0.444\nsamples = 6\nvalue = [2, 4]", fillcolor="#399de57f"] ;
212 -> 214 ;
215 [label="smoke <= 0.5\ngini = 0.458\nsamples = 163\nvalue = [58, 105]", fillcolor="#399de572"] ;
211 -> 215 ;
216 [label="gini = 0.456\nsamples = 125\nvalue = [44, 81]", fillcolor="#399de574"] ;
215 -> 216 ;
217 [label="gini = 0.465\nsamples = 38\nvalue = [14, 24]", fillcolor="#399de56a"] ;
215 -> 217 ;
218 [label="smoke <= 0.5\ngini = 0.429\nsamples = 270\nvalue = [84, 186]", fillcolor="#399de58c"] ;
210 -> 218 ;
219 [label="gini = 0.41\nsamples = 222\nvalue = [64, 158]", fillcolor="#399de598"] ;
218 -> 219 ;
220 [label="gini = 0.486\nsamples = 48\nvalue = [20, 28]", fillcolor="#399de549"] ;
218 -> 220 ;
221 [label="smoke <= 0.5\ngini = 0.411\nsamples = 104\nvalue = [30, 74]", fillcolor="#399de598"] ;
209 -> 221 ;
222 [label="gini = 0.444\nsamples = 78\nvalue = [26, 52]", fillcolor="#399de57f"] ;
221 -> 222 ;
223 [label="gini = 0.26\nsamples = 26\nvalue = [4, 22]", fillcolor="#399de5d1"] ;
221 -> 223 ;
224 [label="male <= 0.5\ngini = 0.324\nsamples = 949\nvalue = [193, 756]", fillcolor="#399de5be"] ;
162 -> 224 ;
225 [label="ap_hi_1 <= 0.5\ngini = 0.305\nsamples = 650\nvalue = [122, 528]", fillcolor="#399de5c4"] ;
224 -> 225 ;
226 [label="smoke <= 0.5\ngini = 0.287\nsamples = 92\nvalue = [16, 76]", fillcolor="#399de5c9"] ;
225 -> 226 ;
227 [label="gini = 0.29\nsamples = 91\nvalue = [16, 75]", fillcolor="#399de5c9"] ;
226 -> 227 ;
228 [label="gini = 0.0\nsamples = 1\nvalue = [0, 1]", fillcolor="#399de5ff"] ;
226 -> 228 ;
229 [label="smoke <= 0.5\ngini = 0.308\nsamples = 558\nvalue = [106, 452]", fillcolor="#399de5c3"] ;
225 -> 229 ;
230 [label="gini = 0.308\nsamples = 548\nvalue = [104, 444]", fillcolor="#399de5c3"] ;
229 -> 230 ;
231 [label="gini = 0.32\nsamples = 10\nvalue = [2, 8]", fillcolor="#399de5bf"] ;
229 -> 231 ;
232 [label="ap_hi_1 <= 0.5\ngini = 0.362\nsamples = 299\nvalue = [71, 228]", fillcolor="#399de5b0"] ;
224 -> 232 ;
233 [label="smoke <= 0.5\ngini = 0.339\nsamples = 60\nvalue = [13, 47]", fillcolor="#399de5b8"] ;
232 -> 233 ;
234 [label="gini = 0.315\nsamples = 46\nvalue = [9, 37]", fillcolor="#399de5c1"] ;
233 -> 234 ;
235 [label="gini = 0.408\nsamples = 14\nvalue = [4, 10]", fillcolor="#399de599"] ;
233 -> 235 ;
236 [label="smoke <= 0.5\ngini = 0.368\nsamples = 239\nvalue = [58, 181]", fillcolor="#399de5ad"] ;
232 -> 236 ;
237 [label="gini = 0.372\nsamples = 198\nvalue = [49, 149]", fillcolor="#399de5ab"] ;
236 -> 237 ;
238 [label="gini = 0.343\nsamples = 41\nvalue = [9, 32]", fillcolor="#399de5b7"] ;
236 -> 238 ;
239 [label="smoke <= 0.5\ngini = 0.228\nsamples = 2730\nvalue = [358, 2372]", fillcolor="#399de5d9"] ;
1 -> 239 ;
240 [label="age_4 <= 0.5\ngini = 0.231\nsamples = 2466\nvalue = [328, 2138]", fillcolor="#399de5d8"] ;
239 -> 240 ;
241 [label="chol_1 <= 0.5\ngini = 0.225\nsamples = 1808\nvalue = [234, 1574]", fillcolor="#399de5d9"] ;
240 -> 241 ;
242 [label="age_3 <= 0.5\ngini = 0.242\nsamples = 689\nvalue = [97, 592]", fillcolor="#399de5d5"] ;
241 -> 242 ;
243 [label="age_1 <= 0.5\ngini = 0.207\nsamples = 349\nvalue = [41, 308]", fillcolor="#399de5dd"] ;
242 -> 243 ;
244 [label="age_2 <= 0.5\ngini = 0.195\nsamples = 247\nvalue = [27, 220]", fillcolor="#399de5e0"] ;
243 -> 244 ;
245 [label="male <= 0.5\ngini = 0.12\nsamples = 47\nvalue = [3, 44]", fillcolor="#399de5ee"] ;
244 -> 245 ;
246 [label="chol_2 <= 0.5\ngini = 0.057\nsamples = 34\nvalue = [1, 33]", fillcolor="#399de5f7"] ;
245 -> 246 ;
247 [label="gini = 0.0\nsamples = 7\nvalue = [0, 7]", fillcolor="#399de5ff"] ;
246 -> 247 ;
248 [label="gini = 0.071\nsamples = 27\nvalue = [1, 26]", fillcolor="#399de5f5"] ;
246 -> 248 ;
249 [label="chol_2 <= 0.5\ngini = 0.26\nsamples = 13\nvalue = [2, 11]", fillcolor="#399de5d1"] ;
245 -> 249 ;
250 [label="gini = 0.0\nsamples = 4\nvalue = [0, 4]", fillcolor="#399de5ff"] ;
249 -> 250 ;
251 [label="gini = 0.346\nsamples = 9\nvalue = [2, 7]", fillcolor="#399de5b6"] ;
249 -> 251 ;
252 [label="chol_3 <= 0.5\ngini = 0.211\nsamples = 200\nvalue = [24, 176]", fillcolor="#399de5dc"] ;
244 -> 252 ;
253 [label="male <= 0.5\ngini = 0.18\nsamples = 110\nvalue = [11, 99]", fillcolor="#399de5e3"] ;
252 -> 253 ;
254 [label="gini = 0.18\nsamples = 70\nvalue = [7, 63]", fillcolor="#399de5e3"] ;
253 -> 254 ;
255 [label="gini = 0.18\nsamples = 40\nvalue = [4, 36]", fillcolor="#399de5e3"] ;
253 -> 255 ;
256 [label="male <= 0.5\ngini = 0.247\nsamples = 90\nvalue = [13, 77]", fillcolor="#399de5d4"] ;
252 -> 256 ;
257 [label="gini = 0.245\nsamples = 63\nvalue = [9, 54]", fillcolor="#399de5d4"] ;
256 -> 257 ;
258 [label="gini = 0.252\nsamples = 27\nvalue = [4, 23]", fillcolor="#399de5d3"] ;
256 -> 258 ;
259 [label="male <= 0.5\ngini = 0.237\nsamples = 102\nvalue = [14, 88]", fillcolor="#399de5d6"] ;
243 -> 259 ;
260 [label="chol_3 <= 0.5\ngini = 0.254\nsamples = 67\nvalue = [10, 57]", fillcolor="#399de5d2"] ;
259 -> 260 ;
261 [label="gini = 0.24\nsamples = 43\nvalue = [6, 37]", fillcolor="#399de5d6"] ;
260 -> 261 ;
262 [label="gini = 0.278\nsamples = 24\nvalue = [4, 20]", fillcolor="#399de5cc"] ;
260 -> 262 ;
263 [label="chol_2 <= 0.5\ngini = 0.202\nsamples = 35\nvalue = [4, 31]", fillcolor="#399de5de"] ;
259 -> 263 ;
264 [label="gini = 0.133\nsamples = 14\nvalue = [1, 13]", fillcolor="#399de5eb"] ;
263 -> 264 ;
265 [label="gini = 0.245\nsamples = 21\nvalue = [3, 18]", fillcolor="#399de5d4"] ;
263 -> 265 ;
266 [label="male <= 0.5\ngini = 0.275\nsamples = 340\nvalue = [56, 284]", fillcolor="#399de5cd"] ;
242 -> 266 ;
267 [label="chol_3 <= 0.5\ngini = 0.248\nsamples = 234\nvalue = [34, 200]", fillcolor="#399de5d4"] ;
266 -> 267 ;
268 [label="gini = 0.271\nsamples = 99\nvalue = [16, 83]", fillcolor="#399de5ce"] ;
267 -> 268 ;
269 [label="gini = 0.231\nsamples = 135\nvalue = [18, 117]", fillcolor="#399de5d8"] ;
267 -> 269 ;
270 [label="chol_2 <= 0.5\ngini = 0.329\nsamples = 106\nvalue = [22, 84]", fillcolor="#399de5bc"] ;
266 -> 270 ;
271 [label="gini = 0.308\nsamples = 42\nvalue = [8, 34]", fillcolor="#399de5c3"] ;
270 -> 271 ;
272 [label="gini = 0.342\nsamples = 64\nvalue = [14, 50]", fillcolor="#399de5b8"] ;
270 -> 272 ;
273 [label="age_2 <= 0.5\ngini = 0.215\nsamples = 1119\nvalue = [137, 982]", fillcolor="#399de5db"] ;
241 -> 273 ;
274 [label="male <= 0.5\ngini = 0.209\nsamples = 778\nvalue = [92, 686]", fillcolor="#399de5dd"] ;
273 -> 274 ;
275 [label="age_1 <= 0.5\ngini = 0.2\nsamples = 514\nvalue = [58, 456]", fillcolor="#399de5df"] ;
274 -> 275 ;
276 [label="age_3 <= 0.5\ngini = 0.192\nsamples = 381\nvalue = [41, 340]", fillcolor="#399de5e0"] ;
275 -> 276 ;
277 [label="gini = 0.202\nsamples = 79\nvalue = [9, 70]", fillcolor="#399de5de"] ;
276 -> 277 ;
278 [label="gini = 0.189\nsamples = 302\nvalue = [32, 270]", fillcolor="#399de5e1"] ;
276 -> 278 ;
279 [label="gini = 0.223\nsamples = 133\nvalue = [17, 116]", fillcolor="#399de5da"] ;
275 -> 279 ;
280 [label="age_3 <= 0.5\ngini = 0.224\nsamples = 264\nvalue = [34, 230]", fillcolor="#399de5d9"] ;
274 -> 280 ;
281 [label="age_1 <= 0.5\ngini = 0.201\nsamples = 115\nvalue = [13, 102]", fillcolor="#399de5de"] ;
280 -> 281 ;
282 [label="gini = 0.176\nsamples = 41\nvalue = [4, 37]", fillcolor="#399de5e3"] ;
281 -> 282 ;
283 [label="gini = 0.214\nsamples = 74\nvalue = [9, 65]", fillcolor="#399de5dc"] ;
281 -> 283 ;
284 [label="gini = 0.242\nsamples = 149\nvalue = [21, 128]", fillcolor="#399de5d5"] ;
280 -> 284 ;
285 [label="male <= 0.5\ngini = 0.229\nsamples = 341\nvalue = [45, 296]", fillcolor="#399de5d8"] ;
273 -> 285 ;
286 [label="gini = 0.258\nsamples = 217\nvalue = [33, 184]", fillcolor="#399de5d1"] ;
285 -> 286 ;
287 [label="gini = 0.175\nsamples = 124\nvalue = [12, 112]", fillcolor="#399de5e4"] ;
285 -> 287 ;
288 [label="chol_1 <= 0.5\ngini = 0.245\nsamples = 658\nvalue = [94, 564]", fillcolor="#399de5d4"] ;
240 -> 288 ;
289 [label="male <= 0.5\ngini = 0.221\nsamples = 292\nvalue = [37, 255]", fillcolor="#399de5da"] ;
288 -> 289 ;
290 [label="chol_2 <= 0.5\ngini = 0.212\nsamples = 207\nvalue = [25, 182]", fillcolor="#399de5dc"] ;
289 -> 290 ;
291 [label="gini = 0.224\nsamples = 109\nvalue = [14, 95]", fillcolor="#399de5d9"] ;
290 -> 291 ;
292 [label="gini = 0.199\nsamples = 98\nvalue = [11, 87]", fillcolor="#399de5df"] ;
290 -> 292 ;
293 [label="chol_2 <= 0.5\ngini = 0.242\nsamples = 85\nvalue = [12, 73]", fillcolor="#399de5d5"] ;
289 -> 293 ;
294 [label="gini = 0.223\nsamples = 47\nvalue = [6, 41]", fillcolor="#399de5da"] ;
293 -> 294 ;
295 [label="gini = 0.266\nsamples = 38\nvalue = [6, 32]", fillcolor="#399de5cf"] ;
293 -> 295 ;
296 [label="male <= 0.5\ngini = 0.263\nsamples = 366\nvalue = [57, 309]", fillcolor="#399de5d0"] ;
288 -> 296 ;
297 [label="gini = 0.249\nsamples = 247\nvalue = [36, 211]", fillcolor="#399de5d3"] ;
296 -> 297 ;
298 [label="gini = 0.291\nsamples = 119\nvalue = [21, 98]", fillcolor="#399de5c8"] ;
296 -> 298 ;
299 [label="age_1 <= 0.5\ngini = 0.201\nsamples = 264\nvalue = [30, 234]", fillcolor="#399de5de"] ;
239 -> 299 ;
300 [label="male <= 0.5\ngini = 0.227\nsamples = 215\nvalue = [28, 187]", fillcolor="#399de5d9"] ;
299 -> 300 ;
301 [label="age_2 <= 0.5\ngini = 0.355\nsamples = 26\nvalue = [6, 20]", fillcolor="#399de5b3"] ;
300 -> 301 ;
302 [label="age_3 <= 0.5\ngini = 0.266\nsamples = 19\nvalue = [3, 16]", fillcolor="#399de5cf"] ;
301 -> 302 ;
303 [label="gini = 0.0\nsamples = 8\nvalue = [0, 8]", fillcolor="#399de5ff"] ;
302 -> 303 ;
304 [label="chol_3 <= 0.5\ngini = 0.397\nsamples = 11\nvalue = [3, 8]", fillcolor="#399de59f"] ;
302 -> 304 ;
305 [label="chol_1 <= 0.5\ngini = 0.444\nsamples = 9\nvalue = [3, 6]", fillcolor="#399de57f"] ;
304 -> 305 ;
306 [label="gini = 0.444\nsamples = 6\nvalue = [2, 4]", fillcolor="#399de57f"] ;
305 -> 306 ;
307 [label="gini = 0.444\nsamples = 3\nvalue = [1, 2]", fillcolor="#399de57f"] ;
305 -> 307 ;
308 [label="gini = 0.0\nsamples = 2\nvalue = [0, 2]", fillcolor="#399de5ff"] ;
304 -> 308 ;
309 [label="chol_1 <= 0.5\ngini = 0.49\nsamples = 7\nvalue = [3, 4]", fillcolor="#399de540"] ;
301 -> 309 ;
310 [label="gini = 0.0\nsamples = 3\nvalue = [0, 3]", fillcolor="#399de5ff"] ;
309 -> 310 ;
311 [label="gini = 0.375\nsamples = 4\nvalue = [3, 1]", fillcolor="#e58139aa"] ;
309 -> 311 ;
312 [label="chol_2 <= 0.5\ngini = 0.206\nsamples = 189\nvalue = [22, 167]", fillcolor="#399de5dd"] ;
300 -> 312 ;
313 [label="age_2 <= 0.5\ngini = 0.193\nsamples = 139\nvalue = [15, 124]", fillcolor="#399de5e0"] ;
312 -> 313 ;
314 [label="age_4 <= 0.5\ngini = 0.184\nsamples = 107\nvalue = [11, 96]", fillcolor="#399de5e2"] ;
313 -> 314 ;
315 [label="chol_1 <= 0.5\ngini = 0.168\nsamples = 65\nvalue = [6, 59]", fillcolor="#399de5e5"] ;
314 -> 315 ;
316 [label="age_3 <= 0.5\ngini = 0.219\nsamples = 16\nvalue = [2, 14]", fillcolor="#399de5db"] ;
315 -> 316 ;
317 [label="gini = 0.0\nsamples = 1\nvalue = [0, 1]", fillcolor="#399de5ff"] ;
316 -> 317 ;
318 [label="gini = 0.231\nsamples = 15\nvalue = [2, 13]", fillcolor="#399de5d8"] ;
316 -> 318 ;
319 [label="age_3 <= 0.5\ngini = 0.15\nsamples = 49\nvalue = [4, 45]", fillcolor="#399de5e8"] ;
315 -> 319 ;
320 [label="gini = 0.142\nsamples = 13\nvalue = [1, 12]", fillcolor="#399de5ea"] ;
319 -> 320 ;
321 [label="gini = 0.153\nsamples = 36\nvalue = [3, 33]", fillcolor="#399de5e8"] ;
319 -> 321 ;
322 [label="chol_1 <= 0.5\ngini = 0.21\nsamples = 42\nvalue = [5, 37]", fillcolor="#399de5dd"] ;
314 -> 322 ;
323 [label="gini = 0.18\nsamples = 10\nvalue = [1, 9]", fillcolor="#399de5e3"] ;
322 -> 323 ;
324 [label="gini = 0.219\nsamples = 32\nvalue = [4, 28]", fillcolor="#399de5db"] ;
322 -> 324 ;
325 [label="chol_1 <= 0.5\ngini = 0.219\nsamples = 32\nvalue = [4, 28]", fillcolor="#399de5db"] ;
313 -> 325 ;
326 [label="gini = 0.0\nsamples = 6\nvalue = [0, 6]", fillcolor="#399de5ff"] ;
325 -> 326 ;
327 [label="gini = 0.26\nsamples = 26\nvalue = [4, 22]", fillcolor="#399de5d1"] ;
325 -> 327 ;
328 [label="age_4 <= 0.5\ngini = 0.241\nsamples = 50\nvalue = [7, 43]", fillcolor="#399de5d5"] ;
312 -> 328 ;
329 [label="age_2 <= 0.5\ngini = 0.283\nsamples = 41\nvalue = [7, 34]", fillcolor="#399de5ca"] ;
328 -> 329 ;
330 [label="age_3 <= 0.5\ngini = 0.311\nsamples = 26\nvalue = [5, 21]", fillcolor="#399de5c2"] ;
329 -> 330 ;
331 [label="gini = 0.346\nsamples = 9\nvalue = [2, 7]", fillcolor="#399de5b6"] ;
330 -> 331 ;
332 [label="gini = 0.291\nsamples = 17\nvalue = [3, 14]", fillcolor="#399de5c8"] ;
330 -> 332 ;
333 [label="gini = 0.231\nsamples = 15\nvalue = [2, 13]", fillcolor="#399de5d8"] ;
329 -> 333 ;
334 [label="gini = 0.0\nsamples = 9\nvalue = [0, 9]", fillcolor="#399de5ff"] ;
328 -> 334 ;
335 [label="chol_2 <= 0.5\ngini = 0.078\nsamples = 49\nvalue = [2, 47]", fillcolor="#399de5f4"] ;
299 -> 335 ;
336 [label="chol_3 <= 0.5\ngini = 0.049\nsamples = 40\nvalue = [1, 39]", fillcolor="#399de5f8"] ;
335 -> 336 ;
337 [label="male <= 0.5\ngini = 0.062\nsamples = 31\nvalue = [1, 30]", fillcolor="#399de5f6"] ;
336 -> 337 ;
338 [label="gini = 0.0\nsamples = 2\nvalue = [0, 2]", fillcolor="#399de5ff"] ;
337 -> 338 ;
339 [label="gini = 0.067\nsamples = 29\nvalue = [1, 28]", fillcolor="#399de5f6"] ;
337 -> 339 ;
340 [label="gini = 0.0\nsamples = 9\nvalue = [0, 9]", fillcolor="#399de5ff"] ;
336 -> 340 ;
341 [label="gini = 0.198\nsamples = 9\nvalue = [1, 8]", fillcolor="#399de5df"] ;
335 -> 341 ;
342 [label="age_3 <= 0.5\ngini = 0.285\nsamples = 10065\nvalue = [1736, 8329]", fillcolor="#399de5ca"] ;
0 -> 342 [labeldistance=2.5, labelangle=-45, headlabel="False"] ;
343 [label="age_2 <= 0.5\ngini = 0.276\nsamples = 7078\nvalue = [1171, 5907]", fillcolor="#399de5cc"] ;
342 -> 343 ;
344 [label="chol_2 <= 0.5\ngini = 0.267\nsamples = 4726\nvalue = [750, 3976]", fillcolor="#399de5cf"] ;
343 -> 344 ;
345 [label="age_4 <= 0.5\ngini = 0.273\nsamples = 3783\nvalue = [617, 3166]", fillcolor="#399de5cd"] ;
344 -> 345 ;
346 [label="chol_3 <= 0.5\ngini = 0.283\nsamples = 1829\nvalue = [312, 1517]", fillcolor="#399de5cb"] ;
345 -> 346 ;
347 [label="male <= 0.5\ngini = 0.276\nsamples = 1559\nvalue = [258, 1301]", fillcolor="#399de5cc"] ;
346 -> 347 ;
348 [label="smoke <= 0.5\ngini = 0.286\nsamples = 895\nvalue = [155, 740]", fillcolor="#399de5ca"] ;
347 -> 348 ;
349 [label="age_1 <= 0.5\ngini = 0.284\nsamples = 877\nvalue = [150, 727]", fillcolor="#399de5ca"] ;
348 -> 349 ;
350 [label="gini = 0.271\nsamples = 328\nvalue = [53, 275]", fillcolor="#399de5ce"] ;
349 -> 350 ;
351 [label="gini = 0.291\nsamples = 549\nvalue = [97, 452]", fillcolor="#399de5c8"] ;
349 -> 351 ;
352 [label="age_1 <= 0.5\ngini = 0.401\nsamples = 18\nvalue = [5, 13]", fillcolor="#399de59d"] ;
348 -> 352 ;
353 [label="gini = 0.444\nsamples = 9\nvalue = [3, 6]", fillcolor="#399de57f"] ;
352 -> 353 ;
354 [label="gini = 0.346\nsamples = 9\nvalue = [2, 7]", fillcolor="#399de5b6"] ;
352 -> 354 ;
355 [label="age_1 <= 0.5\ngini = 0.262\nsamples = 664\nvalue = [103, 561]", fillcolor="#399de5d0"] ;
347 -> 355 ;
356 [label="smoke <= 0.5\ngini = 0.275\nsamples = 286\nvalue = [47, 239]", fillcolor="#399de5cd"] ;
355 -> 356 ;
357 [label="gini = 0.257\nsamples = 205\nvalue = [31, 174]", fillcolor="#399de5d2"] ;
356 -> 357 ;
358 [label="gini = 0.317\nsamples = 81\nvalue = [16, 65]", fillcolor="#399de5c0"] ;
356 -> 358 ;
359 [label="smoke <= 0.5\ngini = 0.252\nsamples = 378\nvalue = [56, 322]", fillcolor="#399de5d3"] ;
355 -> 359 ;
360 [label="gini = 0.257\nsamples = 291\nvalue = [44, 247]", fillcolor="#399de5d2"] ;
359 -> 360 ;
361 [label="gini = 0.238\nsamples = 87\nvalue = [12, 75]", fillcolor="#399de5d6"] ;
359 -> 361 ;
362 [label="male <= 0.5\ngini = 0.32\nsamples = 270\nvalue = [54, 216]", fillcolor="#399de5bf"] ;
346 -> 362 ;
363 [label="age_1 <= 0.5\ngini = 0.343\nsamples = 173\nvalue = [38, 135]", fillcolor="#399de5b7"] ;
362 -> 363 ;
364 [label="smoke <= 0.5\ngini = 0.3\nsamples = 49\nvalue = [9, 40]", fillcolor="#399de5c6"] ;
363 -> 364 ;
365 [label="gini = 0.305\nsamples = 48\nvalue = [9, 39]", fillcolor="#399de5c4"] ;
364 -> 365 ;
366 [label="gini = 0.0\nsamples = 1\nvalue = [0, 1]", fillcolor="#399de5ff"] ;
364 -> 366 ;
367 [label="smoke <= 0.5\ngini = 0.358\nsamples = 124\nvalue = [29, 95]", fillcolor="#399de5b1"] ;
363 -> 367 ;
368 [label="gini = 0.358\nsamples = 120\nvalue = [28, 92]", fillcolor="#399de5b1"] ;
367 -> 368 ;
369 [label="gini = 0.375\nsamples = 4\nvalue = [1, 3]", fillcolor="#399de5aa"] ;
367 -> 369 ;
370 [label="age_1 <= 0.5\ngini = 0.275\nsamples = 97\nvalue = [16, 81]", fillcolor="#399de5cd"] ;
362 -> 370 ;
371 [label="smoke <= 0.5\ngini = 0.343\nsamples = 41\nvalue = [9, 32]", fillcolor="#399de5b7"] ;
370 -> 371 ;
372 [label="gini = 0.403\nsamples = 25\nvalue = [7, 18]", fillcolor="#399de59c"] ;
371 -> 372 ;
373 [label="gini = 0.219\nsamples = 16\nvalue = [2, 14]", fillcolor="#399de5db"] ;
371 -> 373 ;
374 [label="smoke <= 0.5\ngini = 0.219\nsamples = 56\nvalue = [7, 49]", fillcolor="#399de5db"] ;
370 -> 374 ;
375 [label="gini = 0.223\nsamples = 47\nvalue = [6, 41]", fillcolor="#399de5da"] ;
374 -> 375 ;
376 [label="gini = 0.198\nsamples = 9\nvalue = [1, 8]", fillcolor="#399de5df"] ;
374 -> 376 ;
377 [label="smoke <= 0.5\ngini = 0.263\nsamples = 1954\nvalue = [305, 1649]", fillcolor="#399de5d0"] ;
345 -> 377 ;
378 [label="male <= 0.5\ngini = 0.267\nsamples = 1805\nvalue = [287, 1518]", fillcolor="#399de5cf"] ;
377 -> 378 ;
379 [label="chol_1 <= 0.5\ngini = 0.261\nsamples = 1247\nvalue = [192, 1055]", fillcolor="#399de5d1"] ;
378 -> 379 ;
380 [label="gini = 0.261\nsamples = 376\nvalue = [58, 318]", fillcolor="#399de5d0"] ;
379 -> 380 ;
381 [label="gini = 0.26\nsamples = 871\nvalue = [134, 737]", fillcolor="#399de5d1"] ;
379 -> 381 ;
382 [label="chol_1 <= 0.5\ngini = 0.283\nsamples = 558\nvalue = [95, 463]", fillcolor="#399de5cb"] ;
378 -> 382 ;
383 [label="gini = 0.273\nsamples = 129\nvalue = [21, 108]", fillcolor="#399de5cd"] ;
382 -> 383 ;
384 [label="gini = 0.285\nsamples = 429\nvalue = [74, 355]", fillcolor="#399de5ca"] ;
382 -> 384 ;
385 [label="male <= 0.5\ngini = 0.212\nsamples = 149\nvalue = [18, 131]", fillcolor="#399de5dc"] ;
377 -> 385 ;
386 [label="chol_3 <= 0.5\ngini = 0.278\nsamples = 18\nvalue = [3, 15]", fillcolor="#399de5cc"] ;
385 -> 386 ;
387 [label="gini = 0.346\nsamples = 9\nvalue = [2, 7]", fillcolor="#399de5b6"] ;
386 -> 387 ;
388 [label="gini = 0.198\nsamples = 9\nvalue = [1, 8]", fillcolor="#399de5df"] ;
386 -> 388 ;
389 [label="chol_1 <= 0.5\ngini = 0.203\nsamples = 131\nvalue = [15, 116]", fillcolor="#399de5de"] ;
385 -> 389 ;
390 [label="gini = 0.224\nsamples = 39\nvalue = [5, 34]", fillcolor="#399de5da"] ;
389 -> 390 ;
391 [label="gini = 0.194\nsamples = 92\nvalue = [10, 82]", fillcolor="#399de5e0"] ;
389 -> 391 ;
392 [label="male <= 0.5\ngini = 0.242\nsamples = 943\nvalue = [133, 810]", fillcolor="#399de5d5"] ;
344 -> 392 ;
393 [label="smoke <= 0.5\ngini = 0.227\nsamples = 581\nvalue = [76, 505]", fillcolor="#399de5d9"] ;
392 -> 393 ;
394 [label="age_4 <= 0.5\ngini = 0.235\nsamples = 560\nvalue = [76, 484]", fillcolor="#399de5d7"] ;
393 -> 394 ;
395 [label="age_1 <= 0.5\ngini = 0.218\nsamples = 273\nvalue = [34, 239]", fillcolor="#399de5db"] ;
394 -> 395 ;
396 [label="gini = 0.153\nsamples = 108\nvalue = [9, 99]", fillcolor="#399de5e8"] ;
395 -> 396 ;
397 [label="gini = 0.257\nsamples = 165\nvalue = [25, 140]", fillcolor="#399de5d1"] ;
395 -> 397 ;
398 [label="gini = 0.25\nsamples = 287\nvalue = [42, 245]", fillcolor="#399de5d3"] ;
394 -> 398 ;
399 [label="gini = 0.0\nsamples = 21\nvalue = [0, 21]", fillcolor="#399de5ff"] ;
393 -> 399 ;
400 [label="age_1 <= 0.5\ngini = 0.265\nsamples = 362\nvalue = [57, 305]", fillcolor="#399de5cf"] ;
392 -> 400 ;
401 [label="age_4 <= 0.5\ngini = 0.292\nsamples = 225\nvalue = [40, 185]", fillcolor="#399de5c8"] ;
400 -> 401 ;
402 [label="smoke <= 0.5\ngini = 0.32\nsamples = 85\nvalue = [17, 68]", fillcolor="#399de5bf"] ;
401 -> 402 ;
403 [label="gini = 0.328\nsamples = 63\nvalue = [13, 50]", fillcolor="#399de5bd"] ;
402 -> 403 ;
404 [label="gini = 0.298\nsamples = 22\nvalue = [4, 18]", fillcolor="#399de5c6"] ;
402 -> 404 ;
405 [label="smoke <= 0.5\ngini = 0.275\nsamples = 140\nvalue = [23, 117]", fillcolor="#399de5cd"] ;
401 -> 405 ;
406 [label="gini = 0.256\nsamples = 113\nvalue = [17, 96]", fillcolor="#399de5d2"] ;
405 -> 406 ;
407 [label="gini = 0.346\nsamples = 27\nvalue = [6, 21]", fillcolor="#399de5b6"] ;
405 -> 407 ;
408 [label="smoke <= 0.5\ngini = 0.217\nsamples = 137\nvalue = [17, 120]", fillcolor="#399de5db"] ;
400 -> 408 ;
409 [label="gini = 0.187\nsamples = 96\nvalue = [10, 86]", fillcolor="#399de5e1"] ;
408 -> 409 ;
410 [label="gini = 0.283\nsamples = 41\nvalue = [7, 34]", fillcolor="#399de5ca"] ;
408 -> 410 ;
411 [label="smoke <= 0.5\ngini = 0.294\nsamples = 2352\nvalue = [421, 1931]", fillcolor="#399de5c7"] ;
343 -> 411 ;
412 [label="chol_1 <= 0.5\ngini = 0.289\nsamples = 2135\nvalue = [374, 1761]", fillcolor="#399de5c9"] ;
411 -> 412 ;
413 [label="male <= 0.5\ngini = 0.3\nsamples = 747\nvalue = [137, 610]", fillcolor="#399de5c6"] ;
412 -> 413 ;
414 [label="chol_2 <= 0.5\ngini = 0.309\nsamples = 545\nvalue = [104, 441]", fillcolor="#399de5c3"] ;
413 -> 414 ;
415 [label="gini = 0.299\nsamples = 257\nvalue = [47, 210]", fillcolor="#399de5c6"] ;
414 -> 415 ;
416 [label="gini = 0.317\nsamples = 288\nvalue = [57, 231]", fillcolor="#399de5c0"] ;
414 -> 416 ;
417 [label="chol_2 <= 0.5\ngini = 0.273\nsamples = 202\nvalue = [33, 169]", fillcolor="#399de5cd"] ;
413 -> 417 ;
418 [label="gini = 0.314\nsamples = 82\nvalue = [16, 66]", fillcolor="#399de5c1"] ;
417 -> 418 ;
419 [label="gini = 0.243\nsamples = 120\nvalue = [17, 103]", fillcolor="#399de5d5"] ;
417 -> 419 ;
420 [label="male <= 0.5\ngini = 0.283\nsamples = 1388\nvalue = [237, 1151]", fillcolor="#399de5ca"] ;
412 -> 420 ;
421 [label="gini = 0.281\nsamples = 963\nvalue = [163, 800]", fillcolor="#399de5cb"] ;
420 -> 421 ;
422 [label="gini = 0.288\nsamples = 425\nvalue = [74, 351]", fillcolor="#399de5c9"] ;
420 -> 422 ;
423 [label="male <= 0.5\ngini = 0.339\nsamples = 217\nvalue = [47, 170]", fillcolor="#399de5b9"] ;
411 -> 423 ;
424 [label="chol_3 <= 0.5\ngini = 0.227\nsamples = 23\nvalue = [3, 20]", fillcolor="#399de5d9"] ;
423 -> 424 ;
425 [label="chol_1 <= 0.5\ngini = 0.266\nsamples = 19\nvalue = [3, 16]", fillcolor="#399de5cf"] ;
424 -> 425 ;
426 [label="gini = 0.245\nsamples = 7\nvalue = [1, 6]", fillcolor="#399de5d4"] ;
425 -> 426 ;
427 [label="gini = 0.278\nsamples = 12\nvalue = [2, 10]", fillcolor="#399de5cc"] ;
425 -> 427 ;
428 [label="gini = 0.0\nsamples = 4\nvalue = [0, 4]", fillcolor="#399de5ff"] ;
424 -> 428 ;
429 [label="chol_2 <= 0.5\ngini = 0.351\nsamples = 194\nvalue = [44, 150]", fillcolor="#399de5b4"] ;
423 -> 429 ;
430 [label="chol_1 <= 0.5\ngini = 0.357\nsamples = 159\nvalue = [37, 122]", fillcolor="#399de5b2"] ;
429 -> 430 ;
431 [label="gini = 0.375\nsamples = 36\nvalue = [9, 27]", fillcolor="#399de5aa"] ;
430 -> 431 ;
432 [label="gini = 0.352\nsamples = 123\nvalue = [28, 95]", fillcolor="#399de5b4"] ;
430 -> 432 ;
433 [label="gini = 0.32\nsamples = 35\nvalue = [7, 28]", fillcolor="#399de5bf"] ;
429 -> 433 ;
434 [label="chol_1 <= 0.5\ngini = 0.307\nsamples = 2987\nvalue = [565, 2422]", fillcolor="#399de5c4"] ;
342 -> 434 ;
435 [label="male <= 0.5\ngini = 0.268\nsamples = 1192\nvalue = [190, 1002]", fillcolor="#399de5cf"] ;
434 -> 435 ;
436 [label="chol_2 <= 0.5\ngini = 0.277\nsamples = 831\nvalue = [138, 693]", fillcolor="#399de5cc"] ;
435 -> 436 ;
437 [label="smoke <= 0.5\ngini = 0.265\nsamples = 459\nvalue = [72, 387]", fillcolor="#399de5d0"] ;
436 -> 437 ;
438 [label="gini = 0.263\nsamples = 450\nvalue = [70, 380]", fillcolor="#399de5d0"] ;
437 -> 438 ;
439 [label="gini = 0.346\nsamples = 9\nvalue = [2, 7]", fillcolor="#399de5b6"] ;
437 -> 439 ;
440 [label="smoke <= 0.5\ngini = 0.292\nsamples = 372\nvalue = [66, 306]", fillcolor="#399de5c8"] ;
436 -> 440 ;
441 [label="gini = 0.291\nsamples = 362\nvalue = [64, 298]", fillcolor="#399de5c8"] ;
440 -> 441 ;
442 [label="gini = 0.32\nsamples = 10\nvalue = [2, 8]", fillcolor="#399de5bf"] ;
440 -> 442 ;
443 [label="chol_3 <= 0.5\ngini = 0.247\nsamples = 361\nvalue = [52, 309]", fillcolor="#399de5d4"] ;
435 -> 443 ;
444 [label="smoke <= 0.5\ngini = 0.193\nsamples = 194\nvalue = [21, 173]", fillcolor="#399de5e0"] ;
443 -> 444 ;
445 [label="gini = 0.223\nsamples = 149\nvalue = [19, 130]", fillcolor="#399de5da"] ;
444 -> 445 ;
446 [label="gini = 0.085\nsamples = 45\nvalue = [2, 43]", fillcolor="#399de5f3"] ;
444 -> 446 ;
447 [label="smoke <= 0.5\ngini = 0.302\nsamples = 167\nvalue = [31, 136]", fillcolor="#399de5c5"] ;
443 -> 447 ;
448 [label="gini = 0.301\nsamples = 130\nvalue = [24, 106]", fillcolor="#399de5c5"] ;
447 -> 448 ;
449 [label="gini = 0.307\nsamples = 37\nvalue = [7, 30]", fillcolor="#399de5c4"] ;
447 -> 449 ;
450 [label="male <= 0.5\ngini = 0.331\nsamples = 1795\nvalue = [375, 1420]", fillcolor="#399de5bc"] ;
434 -> 450 ;
451 [label="smoke <= 0.5\ngini = 0.339\nsamples = 1122\nvalue = [243, 879]", fillcolor="#399de5b9"] ;
450 -> 451 ;
452 [label="gini = 0.34\nsamples = 1105\nvalue = [240, 865]", fillcolor="#399de5b8"] ;
451 -> 452 ;
453 [label="gini = 0.291\nsamples = 17\nvalue = [3, 14]", fillcolor="#399de5c8"] ;
451 -> 453 ;
454 [label="smoke <= 0.5\ngini = 0.315\nsamples = 673\nvalue = [132, 541]", fillcolor="#399de5c1"] ;
450 -> 454 ;
455 [label="gini = 0.319\nsamples = 522\nvalue = [104, 418]", fillcolor="#399de5c0"] ;
454 -> 455 ;
456 [label="gini = 0.302\nsamples = 151\nvalue = [28, 123]", fillcolor="#399de5c5"] ;
454 -> 456 ;
}